Language model created by QuickLM on Wed May  8 09:32:21 EDT 2019
Copyright (c) 1996-2010 Carnegie Mellon University and Alexander I. Rudnicky

The model is in standard ARPA format, designed by Doug Paul while he was at MITRE.

The code that was used to produce this language model is available in Open Source.
Please visit http://www.speech.cs.cmu.edu/tools/ for more information

The (fixed) discount mass is 0.5. The backoffs are computed using the ratio method.
This model based on a corpus of 15 sentences and 33 words

\data\
ngram 1=33
ngram 2=47
ngram 3=40

\1-grams:
-0.9823 </s> -0.3010
-0.9823 <s> -0.2533
-2.1584 A -0.2980
-2.1584 ARE -0.2950
-2.1584 ASSISTANT -0.2533
-2.1584 CAN -0.2950
-2.1584 CLOSE -0.2980
-2.1584 COMMANDS -0.2533
-2.1584 DAY -0.2919
-2.1584 DIAGNOSTICS -0.2533
-2.1584 DID -0.2950
-1.8573 ELSA -0.2533
-2.1584 HELLO -0.2950
-2.1584 HI -0.2950
-1.8573 I -0.2950
-1.6812 IS -0.2919
-1.8573 IT -0.2533
-2.1584 LIST -0.2980
-2.1584 NEWS -0.2533
-2.1584 READ -0.2980
-2.1584 RUN -0.2980
-1.8573 SAY -0.2533
-2.1584 SING -0.2980
-2.1584 SONG -0.2533
-2.1584 THANK -0.2950
-2.1584 THANKS -0.2533
-2.1584 THE -0.2980
-2.1584 TIME -0.2919
-2.1584 WEATHER -0.2533
-1.4594 WHAT -0.2794
-2.1584 WHO -0.2980
-2.1584 WORLD -0.2980
-1.8573 YOU -0.2533

\2-grams:
-1.4771 <s> CLOSE 0.0000
-1.4771 <s> HELLO 0.0000
-1.4771 <s> HI 0.0000
-1.4771 <s> LIST 0.0000
-1.4771 <s> READ 0.0000
-1.4771 <s> RUN 0.0000
-1.4771 <s> SING 0.0000
-1.4771 <s> THANK 0.0000
-1.4771 <s> THANKS 0.0000
-0.7782 <s> WHAT 0.0000
-1.4771 <s> WHO 0.0000
-0.3010 A SONG 0.0000
-0.3010 ARE YOU 0.0000
-0.3010 ASSISTANT </s> -0.3010
-0.3010 CAN I 0.0000
-0.3010 CLOSE ASSISTANT 0.0000
-0.3010 COMMANDS </s> -0.3010
-0.3010 DAY IS -0.1249
-0.3010 DIAGNOSTICS </s> -0.3010
-0.3010 DID I 0.0000
-0.3010 ELSA </s> -0.3010
-0.3010 HELLO ELSA 0.0000
-0.3010 HI ELSA 0.0000
-0.3010 I SAY 0.0000
-0.4771 IS IT 0.0000
-0.7782 IS THE 0.0000
-0.3010 IT </s> -0.3010
-0.3010 LIST COMMANDS 0.0000
-0.3010 NEWS </s> -0.3010
-0.3010 READ WORLD 0.0000
-0.3010 RUN DIAGNOSTICS 0.0000
-0.3010 SAY </s> -0.3010
-0.3010 SING A 0.0000
-0.3010 SONG </s> -0.3010
-0.3010 THANK YOU 0.0000
-0.3010 THANKS </s> -0.3010
-0.3010 THE WEATHER 0.0000
-0.3010 TIME IS -0.1249
-0.3010 WEATHER </s> -0.3010
-1.0000 WHAT CAN 0.0000
-1.0000 WHAT DAY 0.0000
-1.0000 WHAT DID 0.0000
-1.0000 WHAT IS -0.2218
-1.0000 WHAT TIME 0.0000
-0.3010 WHO ARE 0.0000
-0.3010 WORLD NEWS 0.0000
-0.3010 YOU </s> -0.3010

\3-grams:
-0.3010 <s> CLOSE ASSISTANT
-0.3010 <s> HELLO ELSA
-0.3010 <s> HI ELSA
-0.3010 <s> LIST COMMANDS
-0.3010 <s> READ WORLD
-0.3010 <s> RUN DIAGNOSTICS
-0.3010 <s> SING A
-0.3010 <s> THANK YOU
-0.3010 <s> THANKS </s>
-1.0000 <s> WHAT CAN
-1.0000 <s> WHAT DAY
-1.0000 <s> WHAT DID
-1.0000 <s> WHAT IS
-1.0000 <s> WHAT TIME
-0.3010 <s> WHO ARE
-0.3010 A SONG </s>
-0.3010 ARE YOU </s>
-0.3010 CAN I SAY
-0.3010 CLOSE ASSISTANT </s>
-0.3010 DAY IS IT
-0.3010 DID I SAY
-0.3010 HELLO ELSA </s>
-0.3010 HI ELSA </s>
-0.3010 I SAY </s>
-0.3010 IS IT </s>
-0.3010 IS THE WEATHER
-0.3010 LIST COMMANDS </s>
-0.3010 READ WORLD NEWS
-0.3010 RUN DIAGNOSTICS </s>
-0.3010 SING A SONG
-0.3010 THANK YOU </s>
-0.3010 THE WEATHER </s>
-0.3010 TIME IS IT
-0.3010 WHAT CAN I
-0.3010 WHAT DAY IS
-0.3010 WHAT DID I
-0.3010 WHAT IS THE
-0.3010 WHAT TIME IS
-0.3010 WHO ARE YOU
-0.3010 WORLD NEWS </s>

\end\
